{
  "layers": [
    {
      "name": "dense",
      "type": "Dense",
      "input_shape": null,
      "output_shape": null,
      "weights": [
        [
          -0.1708158254623413,
          -0.16942469775676727,
          -0.2736378610134125,
          0.22610045969486237,
          -0.149229034781456,
          -0.012816580943763256,
          -0.07096511870622635,
          -0.29074230790138245,
          -0.16625918447971344,
          -0.1293855607509613,
          -0.027448249980807304,
          -0.2458248734474182,
          -0.19049696624279022,
          0.19187535345554352,
          0.09242752194404602,
          0.07549045234918594,
          0.3011772334575653,
          0.05898161605000496,
          -0.22418411076068878,
          -0.18953083455562592,
          -0.06774144619703293,
          0.3158097267150879,
          -0.1610962301492691,
          -0.23847447335720062,
          -0.12062923610210419,
          0.13549739122390747,
          -0.17817388474941254,
          0.20354080200195312,
          0.2599075138568878,
          -0.17305800318717957,
          -0.013143162243068218,
          0.2658754885196686,
          0.30860671401023865,
          -0.014358497224748135,
          -0.15601517260074615,
          -0.27153265476226807,
          -0.213367760181427,
          -0.09532342851161957,
          0.018303751945495605,
          0.1436670869588852,
          -0.2520201802253723,
          0.0978221520781517,
          0.15751689672470093,
          -0.06628134101629257,
          0.3091408312320709,
          0.2051781862974167,
          -0.079051174223423,
          -0.07109597325325012,
          -0.05910245701670647,
          -0.1829676628112793,
          -0.185315802693367,
          -0.18776395916938782,
          -0.1386880725622177,
          0.17180687189102173,
          -0.1549283266067505,
          0.32334643602371216,
          0.12858855724334717,
          -0.16413652896881104,
          0.22689838707447052,
          0.18340793251991272,
          0.051740534603595734,
          0.02001749537885189,
          -0.04194529354572296,
          0.18868492543697357
        ],
        [
          0.23608392477035522,
          0.232895165681839,
          -0.1696687638759613,
          0.05629126355051994,
          -0.3003275990486145,
          -0.03536658361554146,
          0.1701282262802124,
          -0.07387813925743103,
          -0.054640740156173706,
          0.06635461747646332,
          -0.18229296803474426,
          0.07516447454690933,
          0.053700342774391174,
          0.021385787054896355,
          0.31673288345336914,
          -0.11065813899040222,
          -0.17097604274749756,
          -0.255656361579895,
          -0.07852521538734436,
          -0.13008007407188416,
          -0.2841913104057312,
          0.23897616565227509,
          0.12542319297790527,
          0.17149600386619568,
          -0.023430919274687767,
          -0.26977503299713135,
          -0.01894221641123295,
          -0.139681875705719,
          -0.29217255115509033,
          0.0737094134092331,
          0.13098643720149994,
          0.0998014509677887,
          -0.1958988755941391,
          0.19843335449695587,
          -0.06746155023574829,
          0.1305089294910431,
          0.17170503735542297,
          -0.09891756623983383,
          0.1174730509519577,
          -7.968198042362928e-05,
          -0.16121871769428253,
          0.13696140050888062,
          -0.20906420052051544,
          0.29984724521636963,
          0.08752189576625824,
          -0.17679692804813385,
          0.09832525998353958,
          0.06876659393310547,
          0.17237316071987152,
          0.06215173006057739,
          -0.23317505419254303,
          0.3167722523212433,
          -0.16764988005161285,
          0.07298929244279861,
          0.14628224074840546,
          0.06495147198438644,
          -0.27262699604034424,
          0.1296830028295517,
          -0.2868157923221588,
          -0.15464764833450317,
          0.13407307863235474,
          0.1761850267648697,
          0.009901612997055054,
          0.1822471022605896
        ],
        [
          0.14077399671077728,
          -0.20300213992595673,
          0.13278061151504517,
          -0.24160009622573853,
          0.14686506986618042,
          0.024493662640452385,
          -0.1122099831700325,
          0.17859113216400146,
          -0.275877445936203,
          0.1375049203634262,
          0.22825005650520325,
          -0.09932918101549149,
          0.047352392226457596,
          -0.2209572196006775,
          -0.15100155770778656,
          0.05953732505440712,
          -0.09933067113161087,
          0.0511329285800457,
          -0.06101103127002716,
          -0.14523646235466003,
          -0.23047752678394318,
          -0.20723319053649902,
          0.2410181164741516,
          0.1266268789768219,
          -0.1916821151971817,
          -0.11447831243276596,
          -0.19144970178604126,
          -0.15826416015625,
          -0.09380772709846497,
          0.03465958684682846,
          -0.1735321432352066,
          -0.18407690525054932,
          0.11290578544139862,
          -0.10156530886888504,
          -0.12168369442224503,
          -0.25959712266921997,
          -0.18575233221054077,
          -0.08640266209840775,
          0.1501673310995102,
          -0.1256171315908432,
          0.04960913211107254,
          0.11422494798898697,
          -0.21559900045394897,
          -0.16964614391326904,
          -0.11252900958061218,
          0.1587039977312088,
          0.1924777626991272,
          -0.12538671493530273,
          -0.03005715273320675,
          -0.2700725495815277,
          0.08756760507822037,
          -0.207286074757576,
          -0.12828437983989716,
          0.2707112431526184,
          -0.15035584568977356,
          -0.08663983643054962,
          0.28817862272262573,
          0.20636014640331268,
          -0.13239073753356934,
          0.057386159896850586,
          0.17517584562301636,
          0.02747589349746704,
          -0.0839775800704956,
          0.14895294606685638
        ],
        [
          0.23541972041130066,
          0.09885082393884659,
          -0.14812041819095612,
          0.11676990985870361,
          0.2628808915615082,
          -0.1301785707473755,
          0.010642001405358315,
          0.27063021063804626,
          -0.09544627368450165,
          0.1260678470134735,
          -0.2235868275165558,
          -0.13569535315036774,
          0.1578608900308609,
          -0.07624264061450958,
          0.2669490575790405,
          -0.294373095035553,
          0.18969272077083588,
          0.15811198949813843,
          -0.030809998512268066,
          0.053361713886260986,
          0.106635183095932,
          -0.10701646655797958,
          -0.18288438022136688,
          0.09968915581703186,
          -0.17227409780025482,
          0.026386572048068047,
          0.22576531767845154,
          -0.10021188110113144,
          -0.0681813582777977,
          -0.057418063282966614,
          -0.05095900967717171,
          0.19984525442123413,
          0.1768568754196167,
          -0.1523965448141098,
          0.10665139555931091,
          0.16217930614948273,
          -0.10565991699695587,
          0.12511895596981049,
          -0.04831024259328842,
          -0.13138213753700256,
          -0.0986519306898117,
          -0.28806060552597046,
          0.23798763751983643,
          0.21507753431797028,
          0.1398279219865799,
          -0.2483527660369873,
          -0.01766120456159115,
          -0.18258708715438843,
          0.21284618973731995,
          0.04808798432350159,
          -0.023321667686104774,
          0.05615261569619179,
          -0.10329162329435349,
          0.08951456099748611,
          -0.1396041065454483,
          -0.22554323077201843,
          0.06635890901088715,
          -0.031261034309864044,
          0.009941610507667065,
          -0.05473152920603752,
          0.04452837258577347,
          -0.03989872708916664,
          -0.22244793176651,
          0.0029556734953075647
        ],
        [
          0.17888572812080383,
          0.1351109743118286,
          -0.23079407215118408,
          -0.1263778954744339,
          -0.0005985498428344727,
          0.06771281361579895,
          0.13696330785751343,
          -0.049675628542900085,
          -0.13722467422485352,
          0.1467631757259369,
          -0.13859891891479492,
          -0.24931101500988007,
          -0.09860922396183014,
          -0.024049967527389526,
          0.25633177161216736,
          0.14566415548324585,
          -0.15172865986824036,
          -0.08657568693161011,
          -0.10102920234203339,
          -0.07742522656917572,
          0.15860211849212646,
          0.08520287275314331,
          0.01774609088897705,
          -0.03618195652961731,
          -0.05848723649978638,
          -0.2509748339653015,
          -0.12781964242458344,
          0.22323384881019592,
          0.02394351363182068,
          -0.2672826945781708,
          0.2539498507976532,
          0.09964185953140259,
          0.28355738520622253,
          0.2504222095012665,
          0.04859974980354309,
          0.07043629884719849,
          0.10745313763618469,
          -0.2043052613735199,
          -0.12963733077049255,
          -0.23372678458690643,
          -0.1268410086631775,
          -0.2788849472999573,
          -0.15606120228767395,
          -0.20100617408752441,
          0.2551603615283966,
          -0.2736150920391083,
          -0.14445729553699493,
          0.26724061369895935,
          0.09882381558418274,
          0.15769001841545105,
          0.02424556016921997,
          0.10370826721191406,
          0.07049492001533508,
          0.1032504141330719,
          0.08646818995475769,
          0.023318856954574585,
          0.01708260178565979,
          0.28495314717292786,
          -0.14983084797859192,
          0.19292494654655457,
          0.1856379210948944,
          -0.010357677936553955,
          -0.28255969285964966,
          -0.28223103284835815
        ],
        [
          -0.24760006368160248,
          0.18153032660484314,
          -0.24718119204044342,
          0.0024011358618736267,
          0.1685461401939392,
          -0.048961345106363297,
          0.1701451987028122,
          0.22755073010921478,
          0.04545155167579651,
          -0.2648394703865051,
          -0.028742920607328415,
          -0.01426669955253601,
          -0.2046857476234436,
          -0.11384759098291397,
          0.140709787607193,
          0.12390411645174026,
          -0.11903835833072662,
          -0.2128727287054062,
          -0.14067402482032776,
          -0.10101665556430817,
          0.12164738774299622,
          0.008718401193618774,
          0.02445487678050995,
          0.050425563007593155,
          0.176826611161232,
          -0.1321810930967331,
          -0.28592488169670105,
          -0.24979573488235474,
          0.005404522642493248,
          0.19522689282894135,
          -0.01412623468786478,
          -0.15329799056053162,
          -0.06851345300674438,
          0.12064479291439056,
          -0.0730050802230835,
          0.2123091071844101,
          -0.12355522811412811,
          0.2461402416229248,
          0.10276468843221664,
          0.16311302781105042,
          -0.008551972918212414,
          0.08629921078681946,
          0.10637520253658295,
          0.10200490802526474,
          -0.22998277842998505,
          -0.08288376033306122,
          -0.02571456879377365,
          -0.2635841965675354,
          -0.20753242075443268,
          -0.050750937312841415,
          0.025530783459544182,
          -0.06777817010879517,
          0.023306434974074364,
          -0.13850954174995422,
          -0.013705536723136902,
          -0.2033364623785019,
          0.26076892018318176,
          0.05913473665714264,
          0.017570966854691505,
          0.23163670301437378,
          -0.09017308801412582,
          -0.220240518450737,
          0.05194830894470215,
          -0.10023769736289978
        ],
        [
          -0.263246089220047,
          -0.04818933084607124,
          0.04556770622730255,
          0.28149062395095825,
          -0.11973707377910614,
          0.12046976387500763,
          -0.21324516832828522,
          0.04240342974662781,
          -0.13483630120754242,
          -0.003061940660700202,
          0.137202650308609,
          0.10071997344493866,
          -0.17370645701885223,
          -0.07183101773262024,
          -0.24204660952091217,
          0.1841982901096344,
          -0.14026246964931488,
          -0.2928076982498169,
          -0.12054537236690521,
          -0.13888363540172577,
          -0.06563276052474976,
          0.19946148991584778,
          -0.11612163484096527,
          0.1798669397830963,
          0.05287580192089081,
          -0.21227356791496277,
          -0.041642479598522186,
          -0.09453515708446503,
          -0.012167248874902725,
          0.05731767416000366,
          0.16382604837417603,
          -0.20955011248588562,
          -0.17691321671009064,
          0.0633186548948288,
          0.11467846482992172,
          0.23718057572841644,
          -0.16697797179222107,
          0.0628637969493866,
          0.2508462369441986,
          -0.2072898894548416,
          0.22655238211154938,
          0.1350441724061966,
          -0.19638985395431519,
          -0.2107713669538498,
          0.24677948653697968,
          -0.13765449821949005,
          0.10237913578748703,
          -0.26497653126716614,
          0.2835161089897156,
          -0.039210397750139236,
          -0.16571643948554993,
          0.22326499223709106,
          0.26216036081314087,
          0.14228977262973785,
          0.09069003164768219,
          0.18100355565547943,
          0.13827820122241974,
          -0.2527695894241333,
          0.2702447772026062,
          0.20761996507644653,
          0.04816973954439163,
          0.11836136877536774,
          -0.2233683466911316,
          0.2630758583545685
        ]
      ],
      "biases": [
        -0.011929504573345184,
        0.033250950276851654,
        0.003911830950528383,
        0.00037081597838550806,
        -0.020623842254281044,
        -0.020618658512830734,
        0.005762852728366852,
        0.00068271579220891,
        0.0,
        0.010207808576524258,
        0.021794309839606285,
        0.03369903191924095,
        -0.017778459936380386,
        0.04508437588810921,
        -0.006400016136467457,
        0.03581802546977997,
        0.05118635669350624,
        -0.0056793480180203915,
        0.0,
        0.0,
        -0.0029542455449700356,
        0.01724308356642723,
        0.02613028697669506,
        -0.0038639348931610584,
        -0.007517596706748009,
        -0.02029280550777912,
        -0.009632209315896034,
        -0.03566431999206543,
        0.0332944355905056,
        -0.006646288093179464,
        0.007190124597400427,
        0.03641913831233978,
        0.013323290273547173,
        0.0004380049358587712,
        0.026770910248160362,
        -0.018051283434033394,
        0.0,
        0.01689191348850727,
        0.0002192126412410289,
        0.04526751860976219,
        -0.013044319115579128,
        0.017277734354138374,
        0.03584279492497444,
        0.02834414690732956,
        0.005954906810075045,
        0.008894841186702251,
        -0.019492916762828827,
        0.0,
        -0.005510194692760706,
        -0.0032604068983346224,
        -0.0028415434062480927,
        0.036198243498802185,
        -0.006461555603891611,
        -0.0027924159076064825,
        0.010197724215686321,
        0.024927174672484398,
        -0.009433102793991566,
        0.019115161150693893,
        -0.0010641921544447541,
        0.016928520053625107,
        -0.02106616646051407,
        -0.004548276774585247,
        0.0,
        0.0007509964052587748
      ]
    },
    {
      "name": "dropout",
      "type": "Dropout",
      "input_shape": null,
      "output_shape": null
    },
    {
      "name": "dense_1",
      "type": "Dense",
      "input_shape": null,
      "output_shape": null,
      "weights": [
        [
          -0.04693173989653587,
          0.18278880417346954,
          -0.011355936527252197,
          -0.09660998731851578,
          -0.21355971693992615,
          0.023192573338747025,
          -0.19234037399291992,
          0.20524843037128448,
          0.11334183067083359,
          0.026562964543700218,
          0.10618967562913895,
          -0.12428884208202362,
          -0.2211379110813141,
          -0.025158550590276718,
          0.24282163381576538,
          0.21214841306209564,
          -0.05728333070874214,
          0.0720573291182518,
          0.14169570803642273,
          0.20051047205924988,
          0.1007964164018631,
          0.19396233558654785,
          -0.2258777767419815,
          -0.21858333051204681,
          0.12996113300323486,
          0.18452873826026917,
          0.17197714745998383,
          0.17644403874874115,
          0.15834252536296844,
          0.13369661569595337,
          0.15710511803627014,
          0.06583433598279953
        ],
        [
          0.11058711260557175,
          -0.12484712898731232,
          -0.10385296493768692,
          0.16499295830726624,
          -0.13500741124153137,
          -0.04279293864965439,
          -0.2414977252483368,
          -0.19099684059619904,
          0.1090034544467926,
          0.22544550895690918,
          -0.11417645215988159,
          0.17435041069984436,
          0.10271739214658737,
          0.15914174914360046,
          0.045085806399583817,
          -0.14048054814338684,
          -0.0403149388730526,
          -0.040024712681770325,
          0.10826663672924042,
          0.191511332988739,
          0.16811834275722504,
          0.20288527011871338,
          -0.2342044711112976,
          -0.06812282651662827,
          -0.2705630958080292,
          -0.07077852636575699,
          0.17223027348518372,
          0.18253245949745178,
          -0.27131330966949463,
          0.1171799898147583,
          -0.0668540969491005,
          0.1498851776123047
        ],
        [
          0.04444274306297302,
          -0.12939046323299408,
          0.056282889097929,
          -0.10024195164442062,
          0.143123596906662,
          0.190060093998909,
          0.06642679125070572,
          -0.07037129998207092,
          -0.1833052784204483,
          0.16326293349266052,
          -0.03258401155471802,
          -0.07190737128257751,
          0.11073222011327744,
          -0.0883866548538208,
          -0.17487575113773346,
          -0.12182454764842987,
          0.1513664871454239,
          -0.07981318235397339,
          -0.11399981379508972,
          -0.13186489045619965,
          0.10781534016132355,
          0.18317371606826782,
          -0.2376711219549179,
          0.22451800107955933,
          0.25443342328071594,
          0.03298451378941536,
          0.23769578337669373,
          0.13617004454135895,
          0.1296556293964386,
          -0.012173505499958992,
          -0.2008226215839386,
          0.09511692076921463
        ],
        [
          -0.1277286261320114,
          -0.21143017709255219,
          -0.17919039726257324,
          -0.04427389055490494,
          -0.08382102847099304,
          -0.11603701114654541,
          0.03968336060643196,
          -0.006285036448389292,
          -0.09396198391914368,
          0.01807466521859169,
          0.08946996182203293,
          -0.13180631399154663,
          0.11212979257106781,
          0.24659258127212524,
          0.10743582993745804,
          0.0005032380577176809,
          -0.17020030319690704,
          -0.17764538526535034,
          -0.09982673078775406,
          -0.1919180303812027,
          -0.06555888056755066,
          0.059093039482831955,
          0.10182736814022064,
          0.13716009259223938,
          -0.09218548238277435,
          -0.16962756216526031,
          0.09392958879470825,
          0.043665334582328796,
          0.04244512692093849,
          -0.1332932859659195,
          0.24026526510715485,
          0.022183340042829514
        ],
        [
          0.1328335553407669,
          -0.15323753654956818,
          -0.2084229737520218,
          -0.23679329454898834,
          0.03217300400137901,
          -0.10739198327064514,
          0.15281528234481812,
          -0.21324804425239563,
          0.22431223094463348,
          -0.20364519953727722,
          0.1767907440662384,
          0.10115072131156921,
          -0.13363319635391235,
          -0.20267853140830994,
          0.16130231320858002,
          -0.13250933587551117,
          0.028209401294589043,
          -0.221170112490654,
          -0.2458225041627884,
          0.23757825791835785,
          0.06201983243227005,
          0.19731460511684418,
          -0.22533157467842102,
          0.04200631380081177,
          -0.2369145154953003,
          0.13118964433670044,
          -0.12262344360351562,
          0.05302153155207634,
          0.1818193644285202,
          -0.13645586371421814,
          0.010433674789965153,
          0.19016151130199432
        ],
        [
          -0.07444112002849579,
          0.000179380745976232,
          -0.037955593317747116,
          0.0756182074546814,
          0.10506689548492432,
          -0.013405702076852322,
          -0.1669573038816452,
          -0.04542965814471245,
          0.13193963468074799,
          -0.05763225257396698,
          -0.24306662380695343,
          -0.22907714545726776,
          -0.08230229467153549,
          0.11042516678571701,
          -0.20594453811645508,
          0.20271426439285278,
          0.1837514489889145,
          0.25146839022636414,
          -0.1339077204465866,
          -0.21287283301353455,
          -0.006712233182042837,
          0.2352471649646759,
          0.09092549979686737,
          0.22630329430103302,
          -0.07764216512441635,
          0.060013797134160995,
          -0.0863485112786293,
          -0.026551397517323494,
          0.09370827674865723,
          0.023738127201795578,
          -0.1302119642496109,
          -0.08442487567663193
        ],
        [
          -0.22245670855045319,
          0.14769276976585388,
          0.1224125474691391,
          -0.032266613095998764,
          -0.18948709964752197,
          0.23194538056850433,
          -0.04807303100824356,
          -0.02761112153530121,
          -0.036257706582546234,
          -0.1309775859117508,
          0.19535082578659058,
          -0.037986405193805695,
          0.16028347611427307,
          -0.158751979470253,
          -0.17892113327980042,
          -0.1175992414355278,
          0.19203534722328186,
          -0.13064780831336975,
          -0.18289786577224731,
          -0.2013700008392334,
          -0.10481557250022888,
          0.06667862832546234,
          -0.1290186047554016,
          0.1570894420146942,
          0.004486463963985443,
          0.03740120306611061,
          0.1452636569738388,
          -0.2015329897403717,
          -0.02330048196017742,
          0.054876551032066345,
          0.03249887004494667,
          0.030387844890356064
        ],
        [
          0.16054385900497437,
          0.18423061072826385,
          0.066908098757267,
          -0.04251769930124283,
          0.1565951704978943,
          -0.2479381114244461,
          0.05946710333228111,
          -0.17724108695983887,
          0.046876780688762665,
          0.003352469066157937,
          -0.005400417372584343,
          -0.11601469665765762,
          -0.1883278340101242,
          -0.061774492263793945,
          -0.21673858165740967,
          -0.21779407560825348,
          -0.046248603612184525,
          0.15870435535907745,
          -0.2496710866689682,
          -0.20999006927013397,
          -0.05243844911456108,
          -0.13903199136257172,
          0.0560058057308197,
          -0.12994322180747986,
          -0.06049361452460289,
          -0.07626157253980637,
          -0.11039623618125916,
          0.20304128527641296,
          -0.20507211983203888,
          0.14107269048690796,
          -0.04453734681010246,
          -0.15380510687828064
        ],
        [
          -0.06881457567214966,
          0.04772228002548218,
          0.06366848945617676,
          0.13816237449645996,
          -0.05407029390335083,
          -0.221876323223114,
          0.08787012100219727,
          0.1295366883277893,
          0.1953163743019104,
          0.007146894931793213,
          -0.211220383644104,
          0.14648789167404175,
          0.20084422826766968,
          -0.13869708776474,
          0.08313077688217163,
          -0.11856716871261597,
          0.23109948635101318,
          -0.10524845123291016,
          -0.11296993494033813,
          -0.07755213975906372,
          -0.08243602514266968,
          -0.15692198276519775,
          0.012217462062835693,
          0.06942164897918701,
          -0.06424099206924438,
          -0.17803090810775757,
          -0.09511715173721313,
          -0.1987507939338684,
          0.0664515495300293,
          -0.08422952890396118,
          -0.22928178310394287,
          0.05180251598358154
        ],
        [
          -0.20420651137828827,
          0.06251578032970428,
          -0.19965478777885437,
          0.09551575034856796,
          -0.2000775784254074,
          0.17062686383724213,
          -0.20221637189388275,
          0.014445305801928043,
          -0.043070510029792786,
          0.23365584015846252,
          -0.045533858239650726,
          -0.220566064119339,
          -0.10392467677593231,
          -0.22788244485855103,
          -0.1866353303194046,
          0.06576278060674667,
          0.23861849308013916,
          -0.10251224040985107,
          0.14542968571186066,
          0.16531528532505035,
          0.2516934871673584,
          0.10124927759170532,
          0.07355540990829468,
          -0.15256693959236145,
          -0.012823937460780144,
          0.2234725058078766,
          0.05212872475385666,
          -0.12087995558977127,
          0.09630642086267471,
          0.22266250848770142,
          0.16103218495845795,
          0.14935286343097687
        ],
        [
          -0.06939517706632614,
          0.14758345484733582,
          0.2671745717525482,
          0.0427088737487793,
          0.12916602194309235,
          0.250990092754364,
          -0.12004384398460388,
          -0.051864687353372574,
          0.06325019150972366,
          0.24488849937915802,
          0.01255819946527481,
          0.09947015345096588,
          0.10696832090616226,
          -0.1404421627521515,
          0.2549663186073303,
          0.2167656421661377,
          -0.23351317644119263,
          0.011086692102253437,
          0.2039668709039688,
          0.013346556574106216,
          -0.13990865647792816,
          -0.19932346045970917,
          0.03845396637916565,
          -0.11486250162124634,
          0.008306898176670074,
          -0.003308148356154561,
          -0.15547369420528412,
          -0.25348615646362305,
          0.23099219799041748,
          0.0047133187763392925,
          -0.22046446800231934,
          -0.21334443986415863
        ],
        [
          -0.2516827881336212,
          -0.02482485957443714,
          0.21277187764644623,
          -0.04146833345293999,
          0.20143623650074005,
          0.05622464418411255,
          0.06252065300941467,
          0.1252613365650177,
          -0.03068666160106659,
          0.1687610000371933,
          0.2028195858001709,
          -0.23864750564098358,
          0.20215852558612823,
          0.15071481466293335,
          -0.16519977152347565,
          0.12525826692581177,
          0.270138144493103,
          0.14297252893447876,
          -0.13027077913284302,
          0.1680891066789627,
          -0.20165057480335236,
          -0.13828587532043457,
          -0.13486868143081665,
          0.12204883992671967,
          0.13461552560329437,
          0.10545414686203003,
          0.04661942273378372,
          0.07178035378456116,
          -0.20146018266677856,
          0.09512180835008621,
          0.07055333256721497,
          -0.053102944046258926
        ],
        [
          0.23415131866931915,
          -0.10297531634569168,
          0.02186737395823002,
          -0.11427295207977295,
          0.022619104012846947,
          0.21257106959819794,
          -0.042619019746780396,
          -0.2303990125656128,
          0.16732780635356903,
          0.16708706319332123,
          -0.04371953755617142,
          0.10258424282073975,
          -0.002741635777056217,
          -0.04008030891418457,
          0.12638962268829346,
          -0.031463373452425,
          0.11397295445203781,
          0.0968865305185318,
          -0.1066630557179451,
          0.16033980250358582,
          0.20092664659023285,
          -0.008275942876935005,
          -0.16659222543239594,
          0.2348083108663559,
          0.025470860302448273,
          0.1093999594449997,
          0.07449276000261307,
          -0.004473457112908363,
          -0.23793365061283112,
          -0.060473889112472534,
          -0.07392755895853043,
          -0.14635069668293
        ],
        [
          0.19715677201747894,
          0.135134756565094,
          0.15094508230686188,
          -0.07225088775157928,
          -0.01719789393246174,
          -0.17800915241241455,
          -0.08512290567159653,
          0.03750810772180557,
          0.18697652220726013,
          -0.061434801667928696,
          0.07692857831716537,
          0.024685537442564964,
          0.10883186012506485,
          0.0359361432492733,
          0.2350739985704422,
          0.05079088360071182,
          -0.05217151716351509,
          0.12367385625839233,
          -0.16152746975421906,
          0.1549815684556961,
          0.04978695884346962,
          0.04476756975054741,
          0.26165738701820374,
          0.14962656795978546,
          0.12563754618167877,
          0.015328716486692429,
          -0.059453003108501434,
          -0.04284153878688812,
          -0.01904725283384323,
          -0.1578676998615265,
          0.2132064700126648,
          0.12824219465255737
        ],
        [
          0.08855801820755005,
          -0.14306284487247467,
          -0.024095023050904274,
          0.24722647666931152,
          0.06696419417858124,
          0.15403245389461517,
          -0.1827436238527298,
          -0.01928478665649891,
          0.10796727985143661,
          -0.08705127239227295,
          -0.19881848990917206,
          -0.17141567170619965,
          -0.20618636906147003,
          0.15924961864948273,
          -0.026912176981568336,
          0.04454497620463371,
          -0.0654362142086029,
          -0.20251409709453583,
          -0.2270490527153015,
          -0.20224200189113617,
          0.11104393750429153,
          -0.20383785665035248,
          -0.11972317844629288,
          0.16731871664524078,
          -0.1364545077085495,
          -0.020368894562125206,
          -0.04701519384980202,
          -0.22338594496250153,
          0.13438139855861664,
          0.053662076592445374,
          0.01762956567108631,
          0.18989165127277374
        ],
        [
          0.15657992660999298,
          -0.21707703173160553,
          0.0710873231291771,
          -0.1426081657409668,
          -0.10282663255929947,
          0.2323773354291916,
          -0.06092402711510658,
          0.25052180886268616,
          -0.1297166794538498,
          -0.03469051048159599,
          0.14340409636497498,
          0.22690817713737488,
          0.2542823851108551,
          0.14564618468284607,
          -0.0868556797504425,
          0.15444894134998322,
          0.024153204634785652,
          -0.13521793484687805,
          -0.19791574776172638,
          -0.05922727286815643,
          -0.07418440282344818,
          -0.1622273474931717,
          -0.018595360219478607,
          -0.252629816532135,
          0.050678789615631104,
          0.20420555770397186,
          -0.008303936570882797,
          -0.0522552989423275,
          -0.027936208993196487,
          0.2268156111240387,
          0.18327008187770844,
          0.17747880518436432
        ],
        [
          0.06662636995315552,
          -0.23537400364875793,
          -0.19573308527469635,
          -0.045783959329128265,
          0.024246294051408768,
          -0.07238633930683136,
          0.05004410818219185,
          -0.040228717029094696,
          0.11102049797773361,
          -0.016705112531781197,
          0.1595626175403595,
          0.17540070414543152,
          0.03694440796971321,
          -0.1971135139465332,
          0.0700128972530365,
          -2.040236722677946e-05,
          -0.2567487061023712,
          0.03488700091838837,
          0.22175593674182892,
          0.01348486915230751,
          0.0991753414273262,
          0.18107369542121887,
          0.23236171901226044,
          -0.17961499094963074,
          0.03724682331085205,
          0.009712997823953629,
          0.11710307747125626,
          -0.12495335191488266,
          -0.013913922011852264,
          0.24223218858242035,
          0.20909257233142853,
          -0.051955822855234146
        ],
        [
          0.17740629613399506,
          -0.000325269706081599,
          0.016825586557388306,
          0.08892292529344559,
          -0.023325122892856598,
          -0.15674269199371338,
          -0.09320911765098572,
          -0.1998407244682312,
          0.2182639241218567,
          0.07923856377601624,
          -0.01413088571280241,
          0.19258296489715576,
          -0.16886556148529053,
          0.15704578161239624,
          -0.11812466382980347,
          -0.09564495086669922,
          -0.01923372969031334,
          -0.004050725605338812,
          0.058085087686777115,
          -0.029740966856479645,
          -0.13863568007946014,
          0.05234164372086525,
          0.06890465319156647,
          -0.04149523749947548,
          -0.0800381749868393,
          -0.056557584553956985,
          0.03868572786450386,
          -0.13939356803894043,
          0.07343371212482452,
          0.10574957728385925,
          0.12322844564914703,
          -0.16574200987815857
        ],
        [
          0.059091269969940186,
          0.10226863622665405,
          -0.035618364810943604,
          0.1738528609275818,
          0.24731981754302979,
          -0.21977078914642334,
          0.14253246784210205,
          0.20501083135604858,
          -0.19004470109939575,
          -0.08259540796279907,
          0.0205916166305542,
          -0.23007529973983765,
          -0.013010382652282715,
          -0.17200708389282227,
          0.1918402910232544,
          0.20861786603927612,
          0.20804089307785034,
          0.09380418062210083,
          0.1700173020362854,
          -0.1519007682800293,
          0.11469310522079468,
          0.05078113079071045,
          0.12964868545532227,
          0.05585581064224243,
          0.15958154201507568,
          -0.053378403186798096,
          -0.03622698783874512,
          0.20264172554016113,
          -0.016571044921875,
          -0.16208243370056152,
          -0.18703198432922363,
          -0.16629379987716675
        ],
        [
          -0.24019384384155273,
          -0.2392406463623047,
          0.21573179960250854,
          0.13185399770736694,
          0.1348283290863037,
          -0.1350419521331787,
          -0.20430082082748413,
          0.08974874019622803,
          -0.05366110801696777,
          0.18295800685882568,
          -0.06358546018600464,
          -0.14986801147460938,
          -0.1472187638282776,
          -0.20929217338562012,
          -0.12608391046524048,
          -0.17763572931289673,
          -0.05800437927246094,
          -0.009844064712524414,
          0.050433456897735596,
          -0.02538168430328369,
          0.20375430583953857,
          -0.21682089567184448,
          -0.061113595962524414,
          -0.1273217797279358,
          0.17521977424621582,
          -0.18011480569839478,
          -0.17084944248199463,
          -0.13617616891860962,
          -0.19122731685638428,
          0.11578571796417236,
          0.05782747268676758,
          0.03340691328048706
        ],
        [
          0.1473250538110733,
          -0.005213635973632336,
          0.006895372178405523,
          0.16692401468753815,
          -0.09163878858089447,
          0.008841468952596188,
          -0.13968932628631592,
          0.1116950511932373,
          0.06599631160497665,
          -0.07140818238258362,
          -0.16799575090408325,
          -0.09648310393095016,
          0.18241578340530396,
          0.16420206427574158,
          0.19513724744319916,
          -0.255299836397171,
          0.246876522898674,
          0.05651365593075752,
          -0.05910111591219902,
          -0.13425998389720917,
          0.2708423435688019,
          -0.15828071534633636,
          -0.20084814727306366,
          -0.20971648395061493,
          0.11006294190883636,
          0.007862809114158154,
          -0.04528843238949776,
          0.031520333141088486,
          -0.011658168397843838,
          -0.25555652379989624,
          0.09700927138328552,
          -0.08250060677528381
        ],
        [
          0.03411143645644188,
          -0.1830047369003296,
          -0.02846793457865715,
          -0.12449326366186142,
          0.04436275362968445,
          -0.09759943932294846,
          0.04762206971645355,
          0.19212695956230164,
          -0.20322012901306152,
          0.004645608831197023,
          -0.0906868502497673,
          0.23531439900398254,
          0.2716671824455261,
          -0.1503119319677353,
          0.2218245267868042,
          -0.222707599401474,
          0.2097407430410385,
          -0.23193740844726562,
          -0.11350437998771667,
          0.06732440739870071,
          -0.10992846637964249,
          -0.23448039591312408,
          0.03966556489467621,
          -0.16249480843544006,
          0.2118760049343109,
          -0.14527016878128052,
          -0.04587360844016075,
          -0.24570025503635406,
          0.2291257083415985,
          0.08392129093408585,
          0.23895002901554108,
          0.20747332274913788
        ],
        [
          -0.08061035722494125,
          -0.03558727353811264,
          0.27359113097190857,
          -0.10234539210796356,
          -0.0938485860824585,
          0.035930439829826355,
          0.11221659928560257,
          -0.027549952268600464,
          0.23147715628147125,
          -0.2207929491996765,
          -0.008512862026691437,
          0.2743317186832428,
          0.19051095843315125,
          0.09352853894233704,
          0.05965453013777733,
          0.289903849363327,
          0.13459114730358124,
          -0.12857785820960999,
          -0.14317093789577484,
          0.11091442406177521,
          0.1321696788072586,
          0.004736499860882759,
          0.0028767623007297516,
          -0.07491017878055573,
          -0.061177756637334824,
          -0.020773716270923615,
          -0.15540222823619843,
          -0.1690755933523178,
          0.18559786677360535,
          0.16163156926631927,
          -0.061697933822870255,
          -0.13696178793907166
        ],
        [
          0.012215258553624153,
          -0.09257658571004868,
          -0.02107721008360386,
          -0.0944446325302124,
          -0.14161379635334015,
          0.02419445291161537,
          -0.17604106664657593,
          0.16656912863254547,
          0.071344755589962,
          0.00883527658879757,
          -0.1315571516752243,
          -0.18179547786712646,
          -0.07662249356508255,
          -0.1474670022726059,
          0.006316076964139938,
          0.13843008875846863,
          0.1074807271361351,
          -0.03441641107201576,
          0.158245250582695,
          -0.10169743746519089,
          0.039623506367206573,
          -0.13950172066688538,
          -0.004316490143537521,
          0.15038642287254333,
          0.08892572671175003,
          0.0003995798178948462,
          -0.1484992802143097,
          -0.24155806005001068,
          -0.2322540581226349,
          0.17441725730895996,
          -0.10221343487501144,
          -0.043968357145786285
        ],
        [
          -0.2533181309700012,
          0.1487772911787033,
          0.18721267580986023,
          -0.04475709795951843,
          -0.2143339067697525,
          0.010579337365925312,
          0.17170189321041107,
          -0.19757699966430664,
          -0.19396500289440155,
          -0.17569734156131744,
          0.22538107633590698,
          0.20221491158008575,
          0.023810090497136116,
          0.24079088866710663,
          -0.040748901665210724,
          -0.24756939709186554,
          -0.026850517839193344,
          -0.22188997268676758,
          0.12718848884105682,
          -0.09374721348285675,
          -0.02535785362124443,
          0.17960092425346375,
          -0.08276920020580292,
          0.0671052411198616,
          0.01815064251422882,
          -0.1339261680841446,
          -0.10984939336776733,
          0.20929114520549774,
          0.12555566430091858,
          -0.23299553990364075,
          0.1730603575706482,
          0.25114038586616516
        ],
        [
          -0.07245884835720062,
          -0.13884299993515015,
          -0.22582538425922394,
          0.022302841767668724,
          0.1532687395811081,
          -0.042440518736839294,
          -0.06971903890371323,
          -0.12140019983053207,
          -0.06554269045591354,
          0.1816449761390686,
          0.08654846996068954,
          0.05288035050034523,
          0.1971675455570221,
          0.10736552625894547,
          -0.04404522851109505,
          -0.16128750145435333,
          0.2073632925748825,
          0.1982991099357605,
          0.1857578158378601,
          0.11096935719251633,
          -0.007828758098185062,
          0.20657365024089813,
          0.028249680995941162,
          -0.04819114878773689,
          -0.21525335311889648,
          -0.0717822015285492,
          -0.19190837442874908,
          -0.14437328279018402,
          -0.0060113100335001945,
          0.26146140694618225,
          -0.10309559106826782,
          -0.09478312730789185
        ],
        [
          0.11777730286121368,
          0.1551281064748764,
          0.06398040056228638,
          0.19761113822460175,
          -0.0709826871752739,
          0.08461295813322067,
          -0.13158118724822998,
          0.21664822101593018,
          -0.2544822692871094,
          -0.02239612117409706,
          -0.1607077717781067,
          -0.20953811705112457,
          0.13247990608215332,
          0.24886667728424072,
          0.020027384161949158,
          0.09049670398235321,
          0.02605554461479187,
          -0.1935192346572876,
          -0.007354277186095715,
          0.17723757028579712,
          -0.21533441543579102,
          -0.17482931911945343,
          -0.16262733936309814,
          0.052606213837862015,
          0.13391239941120148,
          0.18475155532360077,
          -0.08632906526327133,
          0.2003406584262848,
          0.07700255513191223,
          0.0809955969452858,
          0.08412351459264755,
          0.23209504783153534
        ],
        [
          0.09495595097541809,
          0.12196872383356094,
          0.10453926026821136,
          0.2248574197292328,
          -0.16590110957622528,
          0.11239539831876755,
          -0.20279143750667572,
          -0.019864317029714584,
          -0.02497839741408825,
          -0.06493870913982391,
          -0.0634382963180542,
          0.196126788854599,
          -0.17103326320648193,
          0.03890068084001541,
          -0.13434700667858124,
          -0.0679125040769577,
          0.0956249088048935,
          0.14581531286239624,
          0.09274670481681824,
          0.07462620735168457,
          0.1793874055147171,
          -0.11307443678379059,
          -0.059652362018823624,
          0.11968778073787689,
          -0.12959767878055573,
          -0.052049264311790466,
          0.03094080463051796,
          0.13293026387691498,
          -0.09349779039621353,
          -0.14771267771720886,
          0.0005812671734020114,
          0.10915932059288025
        ],
        [
          0.12464059889316559,
          -0.015955204144120216,
          -0.1375751495361328,
          0.1683010756969452,
          0.12931625545024872,
          -0.17475025355815887,
          -0.1752416044473648,
          0.17558073997497559,
          -0.06133749336004257,
          -0.17498040199279785,
          -0.1599358171224594,
          0.26616278290748596,
          0.28168991208076477,
          -0.19835788011550903,
          -0.0019159313524141908,
          0.29426684975624084,
          0.0181452427059412,
          0.006340223830193281,
          0.22949357330799103,
          -0.16220973432064056,
          -0.1284778118133545,
          -0.05534787103533745,
          0.12196239084005356,
          -0.11357998102903366,
          -0.05483724921941757,
          0.1023678258061409,
          0.1653364896774292,
          0.03394467011094093,
          -0.15561982989311218,
          -0.13786844909191132,
          -0.12337301671504974,
          -0.2667195498943329
        ],
        [
          0.17562220990657806,
          0.2341490536928177,
          0.026251202449202538,
          0.15751102566719055,
          -0.19533692300319672,
          0.11086150258779526,
          -0.051837023347616196,
          -0.08051848411560059,
          -0.21622304618358612,
          0.1349111795425415,
          -0.07899924367666245,
          -0.09483209997415543,
          -0.2131582349538803,
          0.23038291931152344,
          0.13773787021636963,
          0.2169564813375473,
          0.10407385230064392,
          -0.003375063417479396,
          -0.2333185374736786,
          -0.02395791932940483,
          0.15192197263240814,
          0.08728782832622528,
          0.08384052664041519,
          -0.10840746760368347,
          0.1027451828122139,
          -0.20495590567588806,
          -0.1327836960554123,
          0.030091814696788788,
          0.1080789566040039,
          0.16006791591644287,
          -0.015729930251836777,
          -0.12515825033187866
        ],
        [
          -0.24163830280303955,
          -0.2769967317581177,
          -0.20849362015724182,
          0.22052651643753052,
          -0.10829935222864151,
          -0.006779506336897612,
          0.2271426022052765,
          -0.08292291313409805,
          -0.030295250937342644,
          -0.16565681993961334,
          -0.24526308476924896,
          -0.16762779653072357,
          -0.15918390452861786,
          0.021154528483748436,
          -0.0950198769569397,
          -0.05043585225939751,
          0.1792076677083969,
          0.14248815178871155,
          -0.23156602680683136,
          0.23113825917243958,
          -0.13438022136688232,
          0.13350971043109894,
          -0.23106315732002258,
          0.0926370844244957,
          -0.1375073343515396,
          0.17844651639461517,
          0.05224934592843056,
          0.2307436168193817,
          0.17407388985157013,
          -0.10143550485372543,
          0.18238063156604767,
          0.12735217809677124
        ],
        [
          0.041925229132175446,
          0.03272346034646034,
          0.05412314087152481,
          0.21236209571361542,
          0.17509682476520538,
          -0.09716238081455231,
          -0.1618751734495163,
          -0.012905243784189224,
          -0.12890321016311646,
          -0.05594181269407272,
          -0.18199263513088226,
          0.12957677245140076,
          0.2080981284379959,
          -0.21077026426792145,
          0.07080873101949692,
          0.28461387753486633,
          -0.07478775829076767,
          0.07147100567817688,
          -0.06235163286328316,
          -0.1299983114004135,
          -0.26123273372650146,
          -0.21516412496566772,
          0.05074121803045273,
          0.11085877567529678,
          -0.17219245433807373,
          -0.01994125172495842,
          0.031742267310619354,
          -0.0032654041424393654,
          -0.1293051540851593,
          0.05301918834447861,
          0.06702829152345657,
          -0.2623203992843628
        ],
        [
          0.028314996510744095,
          -0.17558147013187408,
          -0.19536013901233673,
          -0.11217001080513,
          -0.15552020072937012,
          -0.10931991785764694,
          -0.005259343422949314,
          -0.11513368040323257,
          -0.02911299653351307,
          -0.06280283629894257,
          -0.14550583064556122,
          -0.0949903056025505,
          0.23973511159420013,
          -0.18153536319732666,
          0.11162974685430527,
          -0.16907456517219543,
          -0.19568030536174774,
          -0.2334967404603958,
          0.21376106142997742,
          -0.20270943641662598,
          0.2275695949792862,
          0.07035846263170242,
          0.10362717509269714,
          0.24507948756217957,
          0.24793191254138947,
          0.2335325926542282,
          -0.07975903153419495,
          0.13937260210514069,
          0.19296666979789734,
          -0.14344488084316254,
          -0.18889962136745453,
          -0.11142034828662872
        ],
        [
          0.0794743150472641,
          0.15111130475997925,
          0.047488048672676086,
          -0.024419421330094337,
          -0.1700512021780014,
          0.02161703072488308,
          0.18814869225025177,
          -0.1433887928724289,
          -0.08756720274686813,
          0.06435663998126984,
          -0.09806782752275467,
          0.14834465086460114,
          0.1086229458451271,
          0.048644084483385086,
          0.2185223549604416,
          -0.1488308608531952,
          -0.17792150378227234,
          -0.10682236403226852,
          0.12949055433273315,
          -0.21081332862377167,
          0.20900627970695496,
          -0.15998516976833344,
          0.12605009973049164,
          0.09709236025810242,
          -0.1363556683063507,
          -0.06017390638589859,
          -0.020005298778414726,
          -0.20418955385684967,
          0.07003162801265717,
          0.08798457682132721,
          -0.08236292004585266,
          -0.08751117438077927
        ],
        [
          -0.056277669966220856,
          -0.15681849420070648,
          0.10920644551515579,
          0.19206710159778595,
          0.12649579346179962,
          -0.21809735894203186,
          0.12167178094387054,
          -0.20677277445793152,
          -0.04309849068522453,
          -0.19763968884944916,
          -0.18665993213653564,
          -0.15135778486728668,
          0.12875619530677795,
          0.16594482958316803,
          -0.033457014709711075,
          0.11785392463207245,
          0.09296730160713196,
          0.029112040996551514,
          0.13024236261844635,
          -0.15344254672527313,
          -0.060632288455963135,
          0.06270459294319153,
          -0.03735218942165375,
          0.004095175769180059,
          0.017992962151765823,
          -0.02847743034362793,
          -0.1684163212776184,
          -0.21512506902217865,
          0.10615075379610062,
          0.026186518371105194,
          -0.031752780079841614,
          0.2114115208387375
        ],
        [
          0.1597796231508255,
          0.13243484497070312,
          -0.19219277799129486,
          -0.0713830292224884,
          -0.023865604773163795,
          -0.2221134752035141,
          -0.11137916892766953,
          -0.27478548884391785,
          -0.11809898167848587,
          0.11662252992391586,
          0.053809285163879395,
          0.11592809110879898,
          0.0733039379119873,
          -0.04880532994866371,
          0.19957321882247925,
          -0.2663433253765106,
          -0.20107825100421906,
          0.019521290436387062,
          -0.029103990644216537,
          -0.09844809770584106,
          -0.02369529940187931,
          0.0746527686715126,
          0.1806219071149826,
          -0.11857695877552032,
          -0.12763094902038574,
          0.08117615431547165,
          -0.046843644231557846,
          -0.17675301432609558,
          0.13163265585899353,
          -0.03206628933548927,
          -0.16326361894607544,
          0.18402107059955597
        ],
        [
          -0.13855791091918945,
          0.10438263416290283,
          0.1187182068824768,
          -0.13657957315444946,
          0.21961826086044312,
          -0.1096152663230896,
          -0.08343935012817383,
          -0.21444201469421387,
          -0.21639090776443481,
          -0.20504552125930786,
          0.03596848249435425,
          0.17840611934661865,
          0.1607297658920288,
          -0.03106212615966797,
          -0.1483677625656128,
          -0.09830427169799805,
          -0.23907095193862915,
          -0.2057240605354309,
          -0.23170113563537598,
          -0.019356727600097656,
          0.1684064269065857,
          0.013855397701263428,
          0.04958927631378174,
          -0.20621800422668457,
          -0.07931351661682129,
          0.03897899389266968,
          -0.1374339461326599,
          0.19543248414993286,
          0.015386223793029785,
          -0.19378042221069336,
          -0.08121144771575928,
          -0.14420747756958008
        ],
        [
          0.18005450069904327,
          -0.0359162837266922,
          0.13399925827980042,
          -0.05931901931762695,
          -0.1850796490907669,
          0.10651437938213348,
          -0.09054622799158096,
          -0.22615058720111847,
          0.08089965581893921,
          0.2896442711353302,
          -0.23872850835323334,
          -0.0022688941098749638,
          0.0007304736063815653,
          -0.033355481922626495,
          -0.044099386781454086,
          -0.14908787608146667,
          -0.10095499455928802,
          -0.051463738083839417,
          0.1920630931854248,
          0.16542160511016846,
          -0.11333271116018295,
          -0.07602442800998688,
          -0.26555880904197693,
          -0.01523370947688818,
          0.20951636135578156,
          -0.2709219455718994,
          0.10287348926067352,
          -0.2002161741256714,
          0.09097331017255783,
          0.14804770052433014,
          -0.22860567271709442,
          0.041014984250068665
        ],
        [
          0.1605006754398346,
          0.12893924117088318,
          -0.05149124562740326,
          0.10491476953029633,
          -0.15322673320770264,
          -0.1003003939986229,
          0.041483424603939056,
          0.20314301550388336,
          0.15361899137496948,
          0.009458623826503754,
          -0.23397143185138702,
          -0.1994045525789261,
          -0.20780014991760254,
          0.030345873907208443,
          -0.11117947101593018,
          -0.023302046582102776,
          -0.04863812029361725,
          0.03563765063881874,
          0.13745495676994324,
          0.14366766810417175,
          -0.05432652682065964,
          -0.24740824103355408,
          0.14204435050487518,
          -0.11129561811685562,
          -0.08139277249574661,
          0.23189470171928406,
          0.09179063886404037,
          0.0563572496175766,
          -0.16283664107322693,
          -0.17095725238323212,
          0.0769917443394661,
          -0.05748462677001953
        ],
        [
          0.15547768771648407,
          -0.04807107150554657,
          0.22453299164772034,
          -0.24911925196647644,
          -0.14665980637073517,
          0.07214704155921936,
          0.0643361359834671,
          -0.0746460109949112,
          -0.008375165984034538,
          -0.19996334612369537,
          0.16969537734985352,
          0.15641209483146667,
          0.12207118421792984,
          -0.02464761957526207,
          0.1822839230298996,
          -0.13976174592971802,
          0.2300885021686554,
          -0.17639464139938354,
          0.072484090924263,
          0.09679818153381348,
          -0.16197358071804047,
          0.2104259878396988,
          -0.06627044826745987,
          0.2083393633365631,
          -0.10007729381322861,
          -0.06693917512893677,
          0.1278834193944931,
          -0.24909333884716034,
          0.005249807611107826,
          0.02619234099984169,
          0.24405086040496826,
          0.12136055529117584
        ],
        [
          -0.24652165174484253,
          0.07527799159288406,
          -0.031864117830991745,
          0.21800963580608368,
          0.2322893589735031,
          0.028413396328687668,
          -0.013449949212372303,
          0.05093913897871971,
          0.1368815153837204,
          0.09491144865751266,
          -0.20103538036346436,
          -0.14204558730125427,
          -0.042590782046318054,
          -0.07570133358240128,
          -0.05606531351804733,
          0.14017413556575775,
          -0.030977146700024605,
          0.20152145624160767,
          0.041022732853889465,
          -0.21800267696380615,
          -0.0574304424226284,
          0.22204309701919556,
          0.020762931555509567,
          0.11007548123598099,
          0.1999541074037552,
          0.21562789380550385,
          0.044855158776044846,
          -0.19911184906959534,
          0.16413970291614532,
          0.1816835254430771,
          -0.1275869458913803,
          -0.20470553636550903
        ],
        [
          0.22428692877292633,
          -0.09411776065826416,
          -0.07962388545274734,
          -0.21834014356136322,
          -0.13057143986225128,
          0.03594601899385452,
          0.1708233505487442,
          0.2177007496356964,
          0.0156637541949749,
          -0.1855146586894989,
          -0.146211177110672,
          0.0033100375439971685,
          -0.21067096292972565,
          0.1668798178434372,
          -0.010104392655193806,
          0.23761004209518433,
          -0.05361706018447876,
          -0.15658694505691528,
          -0.1660267859697342,
          0.16431531310081482,
          -0.21328799426555634,
          -0.06288914382457733,
          0.03337103873491287,
          -0.10696516185998917,
          -0.13754773139953613,
          0.2589559853076935,
          -0.2099558264017105,
          0.0578935369849205,
          0.11579629778862,
          0.25354263186454773,
          0.20973165333271027,
          0.012810366228222847
        ],
        [
          0.1026681438088417,
          -0.15702421963214874,
          -0.03343971446156502,
          -0.253983736038208,
          -0.18882456421852112,
          0.27318376302719116,
          -0.035168275237083435,
          -0.01538584940135479,
          -0.04780333489179611,
          0.03330279886722565,
          -0.08756237477064133,
          0.20242908596992493,
          0.023532336577773094,
          -0.23725740611553192,
          -0.06552570313215256,
          0.1757630556821823,
          -0.15176089107990265,
          0.12707537412643433,
          -0.02934189699590206,
          0.16927295923233032,
          0.14584505558013916,
          0.043357498943805695,
          0.2327762395143509,
          0.18112961947917938,
          -0.18561314046382904,
          0.15611861646175385,
          -0.15251775085926056,
          0.1399519145488739,
          -0.040299512445926666,
          -0.04699341580271721,
          0.06015365570783615,
          0.02605712041258812
        ],
        [
          -0.013004187494516373,
          0.02592497132718563,
          0.2061469852924347,
          0.2593722343444824,
          -0.07188066840171814,
          -0.14162954688072205,
          0.02302381582558155,
          -0.26851561665534973,
          -0.2537766695022583,
          0.017240634188055992,
          -0.22655916213989258,
          -0.09361474961042404,
          0.14152184128761292,
          -0.02667674608528614,
          -0.17524343729019165,
          -0.24574385583400726,
          0.09307855367660522,
          0.20205889642238617,
          -0.11230148375034332,
          -0.21544261276721954,
          -0.011546052061021328,
          -0.14547638595104218,
          -0.14940504729747772,
          -0.006643244531005621,
          -0.2207612693309784,
          -0.2784506380558014,
          -0.15035812556743622,
          -0.06943464279174805,
          -0.06888564676046371,
          -0.16750188171863556,
          -0.05518558621406555,
          0.2104283720254898
        ],
        [
          0.0017025260021910071,
          -0.036114368587732315,
          -0.11779055744409561,
          0.2251904159784317,
          0.07443323731422424,
          0.16785570979118347,
          0.08394800126552582,
          0.22997531294822693,
          -0.18673919141292572,
          0.04023519158363342,
          0.008306668139994144,
          -0.11150343716144562,
          0.16114628314971924,
          -0.23649078607559204,
          -0.05102997645735741,
          -0.22666819393634796,
          0.052299320697784424,
          0.22417305409908295,
          -0.0741693302989006,
          -0.025736188516020775,
          0.1627960205078125,
          -0.19718323647975922,
          0.14897963404655457,
          -0.15945716202259064,
          0.12865868210792542,
          0.2452169507741928,
          -0.09937717020511627,
          -0.19764281809329987,
          0.1902722865343094,
          0.0612030066549778,
          -0.15563593804836273,
          -0.17654280364513397
        ],
        [
          0.004607210401445627,
          0.1843634396791458,
          -0.05464305356144905,
          0.1962495595216751,
          -0.016902651637792587,
          -0.17881818115711212,
          0.2615111768245697,
          0.26243382692337036,
          0.24367882311344147,
          0.04596198350191116,
          -0.12511378526687622,
          0.05425308644771576,
          0.14157187938690186,
          -0.19759508967399597,
          -0.17970992624759674,
          -0.07612910866737366,
          -0.1135706678032875,
          -0.0771283507347107,
          -0.15610015392303467,
          0.035322241485118866,
          -0.19740496575832367,
          -0.20727215707302094,
          0.12189070880413055,
          -0.06791309267282486,
          -0.18634243309497833,
          0.2519908547401428,
          -0.10186143964529037,
          0.13819734752178192,
          -0.08000963926315308,
          0.17873744666576385,
          -0.051096949726343155,
          0.10066097974777222
        ],
        [
          0.015389393083751202,
          0.15062782168388367,
          -0.013749988749623299,
          -0.21960382163524628,
          -0.1557801216840744,
          -0.12182938307523727,
          0.15371163189411163,
          0.09406391531229019,
          0.21340708434581757,
          0.1223297193646431,
          -0.04022560268640518,
          0.07786419242620468,
          0.21052609384059906,
          -0.14251740276813507,
          0.1444387584924698,
          0.19061487913131714,
          0.2075771689414978,
          -0.22280286252498627,
          -0.20293226838111877,
          0.18718472123146057,
          0.2233460396528244,
          0.12317103147506714,
          -0.06717585027217865,
          -0.03200285881757736,
          0.13195131719112396,
          0.18444927036762238,
          0.12383522093296051,
          -0.015160007402300835,
          -0.03561406210064888,
          -0.19515015184879303,
          -0.039869748055934906,
          0.0436028316617012
        ],
        [
          0.005040347576141357,
          -0.041783928871154785,
          0.09941905736923218,
          0.14062386751174927,
          -0.2282017469406128,
          0.12389516830444336,
          -0.1265619993209839,
          0.19653600454330444,
          -0.13513684272766113,
          0.07463943958282471,
          -0.022409439086914062,
          0.171985924243927,
          -0.0019399523735046387,
          0.12699252367019653,
          0.11227095127105713,
          0.12178117036819458,
          -0.09969699382781982,
          -0.1151663064956665,
          -0.06924450397491455,
          0.2019215226173401,
          0.12344115972518921,
          0.1694622039794922,
          0.21847254037857056,
          -0.1573520302772522,
          -0.023585796356201172,
          -0.23159819841384888,
          0.04086172580718994,
          -0.13008147478103638,
          0.036379873752593994,
          -0.04100465774536133,
          -0.09437841176986694,
          0.13739055395126343
        ],
        [
          -0.16320766508579254,
          0.10121779888868332,
          0.02619396150112152,
          -0.17047253251075745,
          -0.01184221263974905,
          0.19160431623458862,
          0.10728846490383148,
          -0.013502053916454315,
          0.13278141617774963,
          0.18750812113285065,
          -0.03905357047915459,
          -0.23908700048923492,
          -0.08995404094457626,
          -0.09919202327728271,
          -0.09430203586816788,
          0.19873811304569244,
          -0.23352132737636566,
          -0.032599739730358124,
          0.13678234815597534,
          0.00965150073170662,
          0.0952567309141159,
          0.23164066672325134,
          -0.07334104925394058,
          0.06471650302410126,
          -0.18685457110404968,
          -0.19205355644226074,
          -0.008606822229921818,
          0.18993335962295532,
          -0.035296134650707245,
          -0.2823542356491089,
          -0.12794172763824463,
          -0.15785031020641327
        ],
        [
          -0.13045170903205872,
          -0.02969108335673809,
          0.0899251401424408,
          0.049738019704818726,
          0.09052987396717072,
          -0.2512916624546051,
          0.20437079668045044,
          0.21311414241790771,
          -0.01100482139736414,
          -0.2264343649148941,
          0.07406407594680786,
          -0.18232771754264832,
          -0.07053937017917633,
          0.025774162262678146,
          -0.09842675924301147,
          0.2391505390405655,
          -0.031216328963637352,
          -0.19645419716835022,
          -0.13607054948806763,
          0.11165731400251389,
          -0.19567465782165527,
          0.16717636585235596,
          -0.21546442806720734,
          0.17996321618556976,
          -0.009522676467895508,
          -0.0779857262969017,
          -0.12615860998630524,
          0.14902593195438385,
          -0.23917578160762787,
          0.12245304882526398,
          -0.20388080179691315,
          -0.2300867885351181
        ],
        [
          0.012569136917591095,
          0.12676288187503815,
          0.12977389991283417,
          -0.23145431280136108,
          0.1727677881717682,
          0.12636372447013855,
          -0.1562427580356598,
          0.19913308322429657,
          0.08295255154371262,
          -0.20214110612869263,
          -0.011810719966888428,
          0.007608077023178339,
          0.15756471455097198,
          0.003236359218135476,
          -0.14660276472568512,
          -0.20444117486476898,
          -0.10828164964914322,
          -0.12644022703170776,
          -0.16927583515644073,
          0.07690230756998062,
          -0.21500591933727264,
          -0.23154275119304657,
          0.147065207362175,
          0.021692097187042236,
          -0.05171499401330948,
          -0.012895550578832626,
          -0.24473661184310913,
          0.11591952294111252,
          -0.10694003105163574,
          -0.05708879977464676,
          -0.229861781001091,
          0.19670891761779785
        ],
        [
          -0.035557255148887634,
          -0.2547765076160431,
          -0.06438879668712616,
          0.22407761216163635,
          0.22720840573310852,
          -0.156011164188385,
          -0.0684518963098526,
          0.011876620352268219,
          0.08525683730840683,
          0.2390662282705307,
          -0.045172907412052155,
          -0.2002643644809723,
          -0.19606205821037292,
          0.28402698040008545,
          0.16540615260601044,
          -0.2431221902370453,
          0.09421218186616898,
          -0.06812829524278641,
          0.010736336000263691,
          -0.20128747820854187,
          -0.17765358090400696,
          -0.1284715086221695,
          -0.089037224650383,
          0.15007175505161285,
          0.15549002587795258,
          -0.19655336439609528,
          -0.0023454863112419844,
          -0.08692175894975662,
          0.13411112129688263,
          0.07002482563257217,
          -0.0013978210045024753,
          0.20356546342372894
        ],
        [
          0.20025169849395752,
          -0.09574523568153381,
          0.06028006970882416,
          0.09062819927930832,
          -0.1452084481716156,
          0.0021970532834529877,
          -0.26932433247566223,
          -0.047272082418203354,
          0.09997209906578064,
          0.05960521101951599,
          0.15557241439819336,
          -0.24088075757026672,
          0.07034048438072205,
          -0.18095849454402924,
          0.009863030165433884,
          0.2042485475540161,
          -0.006503233220428228,
          -0.07548362016677856,
          -0.20061415433883667,
          0.013168834149837494,
          -0.07828148454427719,
          0.13125507533550262,
          0.13929383456707,
          -0.061588648706674576,
          0.19448573887348175,
          0.18271829187870026,
          -0.16552743315696716,
          0.21423384547233582,
          0.055484458804130554,
          -0.12706400454044342,
          -0.03893667086958885,
          -0.17229782044887543
        ],
        [
          0.2011466920375824,
          0.15149334073066711,
          0.18558597564697266,
          0.05750289931893349,
          -0.07505472004413605,
          0.20969630777835846,
          -0.15528053045272827,
          -0.07230949401855469,
          0.20947667956352234,
          0.08417034894227982,
          0.2105550616979599,
          -0.0752287358045578,
          -0.08610836416482925,
          -0.23010139167308807,
          -0.008857294917106628,
          0.1295253038406372,
          0.14638757705688477,
          -0.1312716156244278,
          -0.03015371970832348,
          -0.15673387050628662,
          0.161025732755661,
          -0.05772276967763901,
          0.13552218675613403,
          -0.008072447963058949,
          -0.05024729296565056,
          -0.15516172349452972,
          -0.2426007241010666,
          -0.0824708417057991,
          0.18937481939792633,
          0.07485222071409225,
          0.23958957195281982,
          0.24001170694828033
        ],
        [
          -0.2737964987754822,
          0.04901351034641266,
          0.005054152570664883,
          -0.0032846808899194,
          0.0989842563867569,
          -0.270781010389328,
          0.04559870809316635,
          0.01436601672321558,
          -0.022142181172966957,
          -0.12403488904237747,
          -0.15065592527389526,
          0.04901016876101494,
          0.05260271579027176,
          -0.13435761630535126,
          -0.07843133807182312,
          0.01698850281536579,
          0.12792746722698212,
          -0.016912102699279785,
          0.009432545863091946,
          -0.07002200186252594,
          -0.08239644765853882,
          -0.14293630421161652,
          0.05716572701931,
          -0.02461988478899002,
          -0.17027081549167633,
          0.016862235963344574,
          -0.1376437246799469,
          0.1666063368320465,
          -0.11118459701538086,
          0.09898824989795685,
          -0.1350984275341034,
          0.16617389023303986
        ],
        [
          -0.17037688195705414,
          -0.14860349893569946,
          0.06414523720741272,
          0.0890180841088295,
          -0.17186398804187775,
          0.2757713496685028,
          -0.08191092312335968,
          -0.14341959357261658,
          -0.046243324875831604,
          0.011019538156688213,
          -0.011812645941972733,
          0.22781437635421753,
          -0.058378368616104126,
          0.10702747851610184,
          0.16802282631397247,
          -0.02522241696715355,
          0.15161220729351044,
          0.005600741598755121,
          0.011879815720021725,
          -0.1596381813287735,
          0.15542873740196228,
          -0.12161189317703247,
          0.07837872952222824,
          0.18595372140407562,
          -0.17569686472415924,
          0.20957253873348236,
          -0.025656849145889282,
          0.14884977042675018,
          0.12058611959218979,
          0.25567540526390076,
          -0.0030057874973863363,
          0.19881536066532135
        ],
        [
          -0.06502794474363327,
          0.06350401043891907,
          0.1782757043838501,
          -0.1062409058213234,
          0.19104427099227905,
          -0.19064177572727203,
          0.10948874801397324,
          -0.07995960861444473,
          -0.08955734223127365,
          -0.1490451842546463,
          -0.19981767237186432,
          0.20656056702136993,
          0.19544529914855957,
          0.169835165143013,
          -0.07137665897607803,
          0.235279381275177,
          -0.0596146285533905,
          -0.22185911238193512,
          0.08420844376087189,
          0.013488746248185635,
          0.1687597930431366,
          0.04597698152065277,
          -0.1737174093723297,
          -0.19959180057048798,
          0.17672854661941528,
          -0.0019365495536476374,
          -0.10703858733177185,
          0.10841719806194305,
          0.16098028421401978,
          0.23637239634990692,
          -0.0977921411395073,
          0.15030653774738312
        ],
        [
          0.03147847205400467,
          0.04191925376653671,
          -0.037887103855609894,
          -0.0832618996500969,
          0.1837172955274582,
          0.07192482054233551,
          -0.18100182712078094,
          0.09356331825256348,
          0.17250527441501617,
          -0.18579277396202087,
          0.14341199398040771,
          0.15736815333366394,
          0.14597153663635254,
          0.21921345591545105,
          -0.20230358839035034,
          0.0789225623011589,
          0.15881453454494476,
          -0.07639127224683762,
          -0.20466436445713043,
          0.005467843264341354,
          -0.19607292115688324,
          -0.12897942960262299,
          -0.21266010403633118,
          0.12884755432605743,
          0.261768639087677,
          -0.04985431209206581,
          -0.17414391040802002,
          -0.14832274615764618,
          0.08754799515008926,
          -0.07483359426259995,
          -0.05678156763315201,
          -0.05084168165922165
        ],
        [
          0.17746597528457642,
          -0.04814391955733299,
          0.01817099004983902,
          -0.18854685127735138,
          0.12475840002298355,
          0.0033210108522325754,
          -0.2061464637517929,
          -0.0183807834982872,
          -0.2773783206939697,
          -0.1536359041929245,
          0.18090829253196716,
          0.2094099074602127,
          0.1095898225903511,
          0.01037698332220316,
          -0.11216271668672562,
          -0.036485474556684494,
          0.005829738453030586,
          -0.21954002976417542,
          -0.20009708404541016,
          0.15551957488059998,
          0.12042748928070068,
          0.0740148052573204,
          -0.10284686833620071,
          -0.05392952263355255,
          0.01995030976831913,
          0.09924771636724472,
          0.18513163924217224,
          -0.24189524352550507,
          -0.014434732496738434,
          0.05521892383694649,
          -0.09318026900291443,
          0.02766013890504837
        ],
        [
          0.19421222805976868,
          -0.15020079910755157,
          -0.038026925176382065,
          -0.025831347331404686,
          -0.10747664421796799,
          0.23775611817836761,
          -0.07628226280212402,
          0.22271038591861725,
          0.11007440090179443,
          -0.1630137413740158,
          -0.1987357884645462,
          0.1872064173221588,
          -0.06272957473993301,
          -0.05912357568740845,
          -0.10120386630296707,
          0.231812983751297,
          0.09316001832485199,
          0.005191931035369635,
          -0.16300854086875916,
          0.1876440942287445,
          0.029945848509669304,
          -0.14278899133205414,
          0.06570876389741898,
          0.1491781771183014,
          0.22270037233829498,
          0.1266874074935913,
          -0.014259823597967625,
          -0.204461470246315,
          0.14068683981895447,
          -0.1662815660238266,
          0.2109537124633789,
          -0.08950682729482651
        ],
        [
          -0.17831018567085266,
          0.23988299071788788,
          -0.06509540975093842,
          0.016305383294820786,
          0.0010997691424563527,
          0.12253925949335098,
          0.2643083930015564,
          -0.05695796757936478,
          0.13943107426166534,
          -0.08978017419576645,
          0.11703941971063614,
          -0.09541747719049454,
          0.1862870156764984,
          -0.20548737049102783,
          -0.156356081366539,
          0.012962139211595058,
          0.13489603996276855,
          -0.057780828326940536,
          0.13373425602912903,
          0.21776914596557617,
          -0.14240549504756927,
          -0.1832026243209839,
          0.09118009358644485,
          -0.1847001016139984,
          0.20660915970802307,
          -0.2141769379377365,
          -0.012463459745049477,
          -0.04924372211098671,
          0.24659305810928345,
          0.03426157310605049,
          -0.1991148591041565,
          0.21131938695907593
        ],
        [
          -0.07694577425718307,
          -0.17710162699222565,
          0.036313001066446304,
          0.05739470198750496,
          0.032321199774742126,
          0.1427289992570877,
          -0.08538859337568283,
          -0.19108222424983978,
          -0.164465993642807,
          -0.15846610069274902,
          -0.033326953649520874,
          -0.20257854461669922,
          0.15092332661151886,
          -0.09745088219642639,
          -0.050852563232183456,
          0.006133174989372492,
          -0.1764615774154663,
          -0.1589999943971634,
          -0.09323238581418991,
          -0.19246265292167664,
          0.10353722423315048,
          0.20696298778057098,
          -0.20788928866386414,
          -0.10394497960805893,
          -0.10843478888273239,
          -0.2011505365371704,
          0.006615095771849155,
          -0.2170948088169098,
          -0.12487243860960007,
          0.060599640011787415,
          -0.01245301403105259,
          -0.023853719234466553
        ],
        [
          -0.016647696495056152,
          0.11847710609436035,
          0.11024177074432373,
          -0.1360565423965454,
          -0.031709253787994385,
          0.10910874605178833,
          0.226798415184021,
          -0.1778191328048706,
          0.11772090196609497,
          -0.0627102255821228,
          0.033000171184539795,
          -0.16389912366867065,
          -0.23976004123687744,
          -0.07041013240814209,
          -0.13919270038604736,
          -0.03192216157913208,
          0.2248096466064453,
          0.12305206060409546,
          -0.032720208168029785,
          0.07736140489578247,
          0.13987445831298828,
          -0.20819318294525146,
          0.17417365312576294,
          0.15988242626190186,
          0.1276388168334961,
          -0.1834666132926941,
          -0.23068755865097046,
          0.19477730989456177,
          -0.10158979892730713,
          0.1808651089668274,
          -0.14636164903640747,
          0.21341753005981445
        ],
        [
          0.06999491900205612,
          0.0017122647259384394,
          0.11461977660655975,
          0.19546359777450562,
          0.20630890130996704,
          0.16779617965221405,
          -0.06262320280075073,
          0.18682162463665009,
          -0.12273871898651123,
          -0.014118338003754616,
          -0.1635608822107315,
          0.14552150666713715,
          -0.17079615592956543,
          0.05160487815737724,
          0.22337009012699127,
          0.12810024619102478,
          0.20864227414131165,
          0.08112059533596039,
          0.13932758569717407,
          -0.1292254477739334,
          -0.051371194422245026,
          0.2239493429660797,
          0.16760674118995667,
          -0.14092223346233368,
          -0.21418625116348267,
          0.05095987021923065,
          0.0074225799180567265,
          0.05443736910820007,
          0.2278064787387848,
          0.24891559779644012,
          -0.15976200997829437,
          -0.11977525800466537
        ]
      ],
      "biases": [
        0.010794085450470448,
        -0.011035110801458359,
        0.023870041593909264,
        0.005767009221017361,
        -0.01802181638777256,
        0.01914963126182556,
        0.006678763777017593,
        0.028667636215686798,
        -0.02028007246553898,
        0.05493423342704773,
        -0.002874484984204173,
        0.02075263299047947,
        0.019677000120282173,
        -0.0031593511812388897,
        -0.0011693135602399707,
        0.015742924064397812,
        -0.022401195019483566,
        -0.004734877962619066,
        0.018389860168099403,
        0.019043371081352234,
        -0.0017904122360050678,
        -0.017387108877301216,
        0.005689997225999832,
        -0.004218376707285643,
        0.016305115073919296,
        0.014274893328547478,
        0.013664531521499157,
        -0.005211633630096912,
        0.004794636741280556,
        0.014513002708554268,
        0.022198988124728203,
        -0.006697600241750479
      ]
    },
    {
      "name": "dropout_1",
      "type": "Dropout",
      "input_shape": null,
      "output_shape": null
    },
    {
      "name": "dense_2",
      "type": "Dense",
      "input_shape": null,
      "output_shape": null,
      "weights": [
        [
          -0.28366324305534363
        ],
        [
          -0.3400128185749054
        ],
        [
          -0.13944067060947418
        ],
        [
          0.4183400571346283
        ],
        [
          0.3383060693740845
        ],
        [
          -0.16253647208213806
        ],
        [
          -0.12105117738246918
        ],
        [
          -0.09050744771957397
        ],
        [
          -0.19665174186229706
        ],
        [
          0.39345934987068176
        ],
        [
          -0.38457825779914856
        ],
        [
          -0.4303862154483795
        ],
        [
          -0.10239198803901672
        ],
        [
          0.08147378265857697
        ],
        [
          -0.3921056389808655
        ],
        [
          -0.34849637746810913
        ],
        [
          0.141058087348938
        ],
        [
          0.033284347504377365
        ],
        [
          -0.4272746741771698
        ],
        [
          -0.054336920380592346
        ],
        [
          0.21812906861305237
        ],
        [
          -0.27725332975387573
        ],
        [
          -0.25904616713523865
        ],
        [
          -0.3346098065376282
        ],
        [
          -0.08408888429403305
        ],
        [
          -0.33435380458831787
        ],
        [
          -0.1796921193599701
        ],
        [
          0.2680930495262146
        ],
        [
          -0.22074486315250397
        ],
        [
          -0.16700586676597595
        ],
        [
          -0.2855691909790039
        ],
        [
          0.33712485432624817
        ]
      ],
      "biases": [
        -0.00822412595152855
      ]
    }
  ]
}